<?xml version="1.0"?>
<opencv_storage>
<stage1>
  <maxWeakCount>8</maxWeakCount>
  <stageThreshold>1.1012141406536102e-01</stageThreshold>
  <weakClassifiers>
    <_>
      <internalNodes>
        0 -1 124844 8.1328602391295135e-05</internalNodes>
      <leafValues>
        7.1011930704116821e-01 -8.2360923290252686e-01</leafValues></_>
    <_>
      <internalNodes>
        0 -1 84176 1.7465170472860336e-02</internalNodes>
      <leafValues>
        -5.5942201614379883e-01 7.8577113151550293e-01</leafValues></_>
    <_>
      <internalNodes>
        0 -1 93031 3.9364323019981384e-03</internalNodes>
      <leafValues>
        -4.5893126726150513e-01 8.7063378095626831e-01</leafValues></_>
    <_>
      <internalNodes>
        0 -1 72655 9.7398180514574051e-05</internalNodes>
      <leafValues>
        4.7652158141136169e-01 -9.4980973005294800e-01</leafValues></_>
    <_>
      <internalNodes>
        0 -1 19166 7.9214623838197440e-05</internalNodes>
      <leafValues>
        3.2435497641563416e-01 -9.5493167638778687e-01</leafValues></_>
    <_>
      <internalNodes>
        0 -1 85400 1.7401583492755890e-02</internalNodes>
      <leafValues>
        -5.6033349037170410e-01 7.3719435930252075e-01</leafValues></_>
    <_>
      <internalNodes>
        0 -1 78923 6.2555172480642796e-03</internalNodes>
      <leafValues>
        -4.4304960966110229e-01 9.8129785060882568e-01</leafValues></_>
    <_>
      <internalNodes>
        0 -1 78959 -1.3240467756986618e-02</internalNodes>
      <leafValues>
        9.4471669197082520e-01 -3.9136421680450439e-01</leafValues></_></weakClassifiers></stage1>
</opencv_storage>
