<?xml version="1.0"?>
<opencv_storage>
<stage0>
  <maxWeakCount>7</maxWeakCount>
  <stageThreshold>-1.0001344680786133e+00</stageThreshold>
  <weakClassifiers>
    <_>
      <internalNodes>
        0 -1 91457 -2.1979454904794693e-03</internalNodes>
      <leafValues>
        8.5000002384185791e-01 -6.6785717010498047e-01</leafValues></_>
    <_>
      <internalNodes>
        0 -1 106058 1.1473698541522026e-02</internalNodes>
      <leafValues>
        -8.8642674684524536e-01 6.3885158300399780e-01</leafValues></_>
    <_>
      <internalNodes>
        0 -1 68325 4.3539376929402351e-03</internalNodes>
      <leafValues>
        -6.3260680437088013e-01 8.4421819448471069e-01</leafValues></_>
    <_>
      <internalNodes>
        0 -1 18781 -1.9415203481912613e-02</internalNodes>
      <leafValues>
        5.5955475568771362e-01 -9.6011757850646973e-01</leafValues></_>
    <_>
      <internalNodes>
        0 -1 69940 -1.1032689362764359e-02</internalNodes>
      <leafValues>
        5.0974214076995850e-01 -8.1511074304580688e-01</leafValues></_>
    <_>
      <internalNodes>
        0 -1 484 5.5126607418060303e-02</internalNodes>
      <leafValues>
        -9.0155041217803955e-01 4.2142510414123535e-01</leafValues></_>
    <_>
      <internalNodes>
        0 -1 76306 -1.7264645546674728e-02</internalNodes>
      <leafValues>
        9.6088373661041260e-01 -5.0626862049102783e-01</leafValues></_></weakClassifiers></stage0>
</opencv_storage>
