<?xml version="1.0"?>
<opencv_storage>
<stage0>
  <maxWeakCount>8</maxWeakCount>
  <stageThreshold>8.1191271543502808e-02</stageThreshold>
  <weakClassifiers>
    <_>
      <internalNodes>
        0 -1 964 3.6394659429788589e-02</internalNodes>
      <leafValues>
        -9.1655451059341431e-01 7.4479395151138306e-01</leafValues></_>
    <_>
      <internalNodes>
        0 -1 84717 -5.9358756989240646e-03</internalNodes>
      <leafValues>
        8.5969340801239014e-01 -5.7753032445907593e-01</leafValues></_>
    <_>
      <internalNodes>
        0 -1 9334 -2.0447235554456711e-02</internalNodes>
      <leafValues>
        5.7911181449890137e-01 -8.8258713483810425e-01</leafValues></_>
    <_>
      <internalNodes>
        0 -1 113424 4.8907776363193989e-03</internalNodes>
      <leafValues>
        -5.1817464828491211e-01 9.2661756277084351e-01</leafValues></_>
    <_>
      <internalNodes>
        0 -1 124805 2.1234001906123012e-05</internalNodes>
      <leafValues>
        4.1720637679100037e-01 -1.</leafValues></_>
    <_>
      <internalNodes>
        0 -1 113696 6.0520870611071587e-03</internalNodes>
      <leafValues>
        -5.6312894821166992e-01 9.1075086593627930e-01</leafValues></_>
    <_>
      <internalNodes>
        0 -1 68875 6.2694903463125229e-03</internalNodes>
      <leafValues>
        -4.2251661419868469e-01 9.4814103841781616e-01</leafValues></_>
    <_>
      <internalNodes>
        0 -1 124804 -2.0074483472853899e-05</internalNodes>
      <leafValues>
        -1. 5.1247096061706543e-01</leafValues></_></weakClassifiers></stage0>
</opencv_storage>
